\data\
ngram 1=10
ngram 2=10

\1-grams:
-1.2552725	<unk>	0
0	<s>	-0.17609124
-0.97651887	</s>	0
-0.97651887	this	-0.12493875
-0.97651887	is	-0.30103
-0.97651887	a	-0.30103
-0.80811447	test	0
-0.80811447	another	-0.12493875
-0.97651887	and	-0.30103
-0.97651887	yet	-0.30103

\2-grams:
-0.97651887	test </s>
-0.62518376	<s> this
-0.48258418	this is
-0.518876	is a
-0.23823915	a test
-0.43572855	another test
-0.4844205	is another
-0.23823915	yet another
-0.62518376	<s> and
-0.25744945	and yet

\end\
